{"W": [[14.719616839877496, -16.433746045836028, -2.3001248873861595, 5.42479586170186, -7.289216606430125, -1.3159423439130746, 0.1893953750241871, -6.159645091556538, 0.012680079949230861, 1.454362830668146, -3.148292556451542, 0.10603532181751084, 1.9616945922887004, -2.0278732198605023, -0.6915784739237324, 0.6207559115384523, -1.0025097655669766, -0.1910506847644875, 0.9635131979747374, 0.2798677907540319, 0.5552150018147716, 0.6498257087332971, 0.3015571037382985, -0.14586333185121608, 0.8959991147729671, 0.9810137549173651, -0.044615935886622625, -0.04693565894768734, 0.06756752883902689, 0.053758949495996716, -3.3460175866486406], [-66.30184054812956, 57.77379073325364, -21.415167171710305, 13.659209516785442, 2.0544145557567473, -3.746253952194842, 2.4926160201961554, 5.188567562541068, -2.392417955840865, -0.8479892275873767, 2.855520219274512, -2.3813230849559295, 3.1533645851242786, 2.1301758919274203, -0.6573667692392182, 2.6095614399749794, -0.21325108002678947, -0.5635249678189385, 0.342594512427352, 0.7294199471008443, 0.3095327454807314, -0.028093919937432085, 0.691615612336375, -0.2505700280534156, -0.49210665685911087, -0.3614374018476389, -0.08144919857724679, 0.014633702902106277, -0.03277878013803319, -0.06218762608438471, 5.925867644402502], [28.738884013470994, -19.431299568370388, 1.461280445095294, -5.9348136053339955, -3.318621163326909, 2.47978095031996, -2.4001402698529484, -0.06118838046611863, 0.44250168778901644, -0.9338404352036729, -1.302203308586715, 0.8862339844181918, -0.5659905195807564, 1.143656304421951, -0.399052733568131, -1.7430968595633616, 1.3146105487808348, -0.007450334385441543, -1.108703609472457, -0.6816349241084052, 0.38449766416899345, -0.650788047173091, -0.9719633285717181, 0.40248862942266045, -0.4518799459416338, -0.6981576179367864, 0.45558594987392254, -0.028987710614424178, -0.08224221902652756, -0.01335993722456777, -0.5317696255911606]], "b": [-15.690030943309326, 82.92492883722826, -34.96449021846174], "log_std": [-0.6931471805599453, -0.6931471805599453, -0.6931471805599453]}