{"W": [[0.2959415316581726, -0.34191927313804626, -0.11459380388259888, 0.21440206468105316, -0.14864613115787506, 0.0022957411129027605, -0.15596501529216766, -0.25727543234825134, 0.2224062830209732, 0.12759585678577423, -0.05779581889510155, -0.2721654772758484, -0.05943547934293747, 0.022664524614810944, -0.25019028782844543, -0.18562598526477814, -0.17244818806648254, -0.006552049890160561, -0.32421669363975525, -0.13199035823345184, 0.06488607078790665, -0.12236659973859787, -0.3351087272167206, 0.1419200301170349, -0.2751961648464203, 0.0036346674896776676, 0.06684751808643341, -0.3105437457561493, -0.3116532266139984, -0.24390721321105957, -0.5093396902084351, -0.4864058792591095, -0.08457690477371216, -0.22812044620513916, -0.14755484461784363, 0.09060201048851013, -0.26604196429252625, -0.03390296921133995, -0.3562934696674347, -0.21834300458431244, -0.3161567151546478, 0.034122832119464874, -0.34801462292671204, -0.21273154020309448, -0.23033243417739868, -0.2957962453365326, -0.22289173305034637, -0.3636050820350647, -0.21654272079467773, -0.5570805072784424, -0.18830135464668274, -0.2661007344722748, -0.221308633685112, 0.1184794008731842, -0.1742585003376007, -0.2792292833328247, -0.00349965738132596, -0.16062578558921814, -0.29007184505462646, -0.4670546352863312, 0.1352165788412094, -0.10592392086982727, -0.32774147391319275, -0.07380133867263794, -0.05246669426560402, -0.261482298374176, 0.23200827836990356, -0.5000608563423157, -0.32882553339004517, 0.032641295343637466, -0.28696078062057495, -0.3223177194595337, -0.003806407330557704, -0.38619306683540344, -0.5253114104270935, 0.029336780309677124, -0.48128214478492737, -0.44676923751831055, 0.23620498180389404, -0.2820785343647003, -0.674470067024231, 0.18036101758480072, 0.21168780326843262, -0.6075402498245239, -0.10964034497737885, 0.5147924423217773, -0.306310772895813, 0.32846498489379883, 0.16325074434280396, -0.3116779327392578, 0.4703877866268158, 0.432064026594162, -0.4378036558628082, 0.3183057904243469, 0.18073324859142303, -0.3748229146003723, 0.4301740825176239, -0.08161646127700806, -0.3326205015182495, 0.3157027065753937, 0.3309456706047058, 0.2948038876056671, 0.5879262685775757, -0.03396213427186012, -0.17523372173309326, 0.26918554306030273, 0.1344647854566574, 0.15144643187522888, 0.3886023759841919, 0.04288523271679878, -0.23126733303070068, 0.3869476318359375, 0.22684958577156067, -0.05982578545808792, 0.42516398429870605, 0.25800013542175293, -0.10036349296569824, 0.5263261795043945, 0.17161142826080322, 0.11901145428419113, 0.3754045069217682, 0.14119815826416016, 0.3019809424877167, 0.17932727932929993, 0.3714696168899536, -0.3354358673095703, 0.2510966360569, 0.08169081062078476, 0.24385197460651398, 0.32577434182167053, 0.5484549403190613, 0.05877387151122093, -0.13438169658184052, -0.08290139585733414, -0.06181643158197403, -0.03204699233174324, 0.20604386925697327, -0.0809118002653122, -0.2809142470359802, -0.41575440764427185, -0.43473681807518005, 0.06586306542158127, -0.21990826725959778, -0.17230650782585144, -0.053847867995500565, -0.024889234453439713, -0.33723127841949463, 0.029937386512756348, 0.04052981361746788, -0.03707859665155411, 0.32561761140823364], [0.09253646433353424, -0.10504596680402756, -0.20694682002067566, 0.3788861334323883, 0.2384582906961441, 0.25046300888061523, 0.19929733872413635, -0.09686248749494553, 0.4284142553806305, -0.014168325811624527, -0.06086133420467377, -0.20570462942123413, 0.16353502869606018, -0.15511628985404968, -0.04310162365436554, 0.2247539758682251, -0.11985734105110168, -0.07543187588453293, 0.06536409258842468, -0.5047683715820312, -0.47673818469047546, 0.3802514970302582, -0.09661122411489487, -0.2388637363910675, 0.03463776409626007, -0.1920979768037796, -0.35503557324409485, 0.49506959319114685, -0.48001667857170105, -0.6121277809143066, 0.3557652533054352, -0.19092349708080292, -0.3591669201850891, 0.5214531421661377, -0.45141592621803284, -0.375226765871048, 0.2698240280151367, 0.191341370344162, -0.30056577920913696, 0.24017350375652313, 0.335965633392334, -0.017983295023441315, 0.2849080264568329, 0.13929228484630585, -0.19624048471450806, 0.05418750271201134, 0.09041036665439606, -0.20434463024139404, 0.21021094918251038, -0.006466984748840332, -0.1383160650730133, -0.0060539934784173965, 0.3152891993522644, -0.248086616396904, -0.14048081636428833, 0.0867658257484436, -0.2182132452726364, -0.059570636600255966, 0.26470446586608887, -0.19454945623874664, -0.06583140045404434, 0.03862612694501877, -0.06452042609453201, -0.2994236946105957, -0.07105672359466553, -0.4057158827781677, -0.02458082139492035, 0.09648936241865158, 0.024096252396702766, -0.2058868557214737, -0.1529548317193985, -0.28905853629112244, -0.32991451025009155, 0.08793405443429947, -0.19127169251441956, -0.06717540323734283, -0.18042424321174622, -0.4780537784099579, -0.17955966293811798, -0.4752798080444336, -0.3573013246059418, -0.23117585480213165, -0.048196516931056976, -0.7125292420387268, 0.04644373431801796, 0.010240999981760979, -0.08385647088289261, -0.13008299469947815, -0.0320500023663044, -0.18916106224060059, -0.14557431638240814, -0.2750759720802307, 0.10927309840917587, -0.24821200966835022, -0.06272614747285843, -0.09692565351724625, 0.1989758312702179, -0.043824926018714905, -0.6001555919647217, 0.19228504598140717, 0.08267571777105331, 0.03940022364258766, -0.09500377625226974, -0.4736029803752899, -0.5500974655151367, -0.007148086559027433, -0.3621369004249573, -0.4117108881473541, 0.3210143446922302, -0.19574078917503357, -0.1777278035879135, 0.4142107367515564, -0.40517759323120117, -0.3662998080253601, 0.3526490330696106, -0.18523304164409637, -0.35868221521377563, 0.3301376402378082, -0.006876775063574314, -0.6827031970024109, 0.49211886525154114, -0.05881144851446152, -0.650230884552002, 0.3737095594406128, -0.2852634787559509, -0.6295980215072632, 0.32828590273857117, 0.08134376257658005, -0.5824803709983826, -0.12099182605743408, -0.03903535008430481, -0.24598276615142822, 0.2798703908920288, 0.1392766386270523, -0.13518884778022766, 0.2919154763221741, -0.0657351091504097, -0.06455470621585846, -0.09907153993844986, -0.09521543979644775, -0.21847978234291077, 0.3040701448917389, 0.1809469610452652, -0.17682209610939026, 0.09075205028057098, -0.13902105391025543, -0.6289423108100891, -0.050352610647678375, -0.04517166689038277, 0.08540846407413483, 0.13955643773078918], [-0.0015813091304153204, -0.12091857194900513, 0.3041265606880188, 0.22985409200191498, -0.10629963874816895, -0.10131499916315079, -0.00021548406220972538, -0.008025486022233963, 0.2760498523712158, 0.37078753113746643, 0.1956530511379242, -0.14622469246387482, -0.01930258981883526, 0.01141274068504572, -0.18197917938232422, 0.04597514867782593, 0.019434554502367973, 0.17905060946941376, 0.06104428321123123, 0.34080004692077637, -0.11417368799448013, 0.06403173506259918, -0.0819239392876625, 0.11580634117126465, 0.16940824687480927, 0.022858956828713417, -0.10445255786180496, -0.1106879860162735, 0.028037335723638535, 0.047756120562553406, -0.2007298320531845, 0.04218198359012604, -0.2663213908672333, -0.01751933991909027, -0.008708798326551914, -0.10864156484603882, 0.03032528981566429, -0.05213693156838417, -0.13131773471832275, -0.24353770911693573, 0.09448914229869843, 0.016135992482304573, 0.11375600844621658, 0.1807626336812973, -0.26740625500679016, 0.0052225012332201, 0.1952139437198639, -0.1769324392080307, 0.1403617411851883, -0.06694550812244415, -0.2279731035232544, 0.40584179759025574, 0.10311750322580338, -0.5842348337173462, 0.20554964244365692, -0.14733342826366425, -0.26934441924095154, 0.3715393543243408, 0.09345851093530655, -0.002404657658189535, 0.10351386666297913, 0.1716298609972, 0.003769319038838148, 0.14583653211593628, -0.04990612342953682, 0.01397715788334608, 0.23332075774669647, 0.20364601910114288, -0.35639673471450806, 0.24802781641483307, 0.19874168932437897, -0.27438199520111084, 0.285989373922348, 0.13453152775764465, -0.35859301686286926, 0.23235541582107544, 0.3803919851779938, -0.023015178740024567, 0.10917574912309647, 0.5826777219772339, -0.47413694858551025, 0.152689591050148, 0.323091596364975, -0.25949645042419434, 0.263815701007843, 0.3407953977584839, -0.19667808711528778, 0.38715866208076477, 0.3768100440502167, -0.029384315013885498, 0.44637531042099, 0.20943205058574677, -0.03235717490315437, 0.5367191433906555, -0.013077665120363235, 0.1443687379360199, 0.16629663109779358, -0.24201442301273346, 0.14401516318321228, 0.28398075699806213, 0.06495342403650284, -0.14753130078315735, 0.17076562345027924, 0.13001005351543427, 0.011055601760745049, 0.2289392501115799, 0.3264572322368622, -0.020734505727887154, 0.28246626257896423, 0.2246478796005249, -0.06836771965026855, -0.037761788815259933, -0.13634100556373596, 0.2913980185985565, 0.1648443639278412, 0.1350775510072708, -0.14212794601917267, 0.3106274902820587, 0.008056847378611565, -0.27734115719795227, 0.3346445560455322, 0.08385814726352692, -0.2814920246601105, 0.35125941038131714, 0.08250588178634644, -0.26929840445518494, 0.34679675102233887, 0.2682279646396637, -0.12001119554042816, -0.02548248879611492, -0.0866519883275032, -0.0573669970035553, 0.11801009625196457, 0.14049483835697174, -0.09572307020425797, -0.3730204403400421, -0.06675723940134048, 0.2663882374763489, 0.3984930217266083, 0.22587347030639648, -0.34563013911247253, 0.18519529700279236, 0.2857920229434967, -0.41861486434936523, 0.17647168040275574, 0.2520235776901245, -0.4110349714756012, -0.05995665863156319, -0.07304715365171432, -0.059971559792757034, -0.08329057693481445]], "b": [0.014001835137605667, 0.23463565111160278, -0.0447077676653862], "log_std": [-2.611684560775757, -2.595223903656006, -1.2002812623977661]}