{"W": [[1.1227216794736428, 1.8149886912232096, -0.9686271133946779, 1.0795216037875672, 2.248176454204692, -0.2952830777438101, 0.6287968510842795, 2.1178118369270904, -0.9363991094003041, 0.9377616985197061, 1.6784972854690623, -1.1035321047732904, 0.06138456444910256, 2.0320304884230174, -1.0535882158585597, 0.6768996859759899, 1.7114076855087055, -0.7022239901197256, 1.4062120861683112, 2.2935785632875545, -0.6918129559834293, 1.9049285830115497, 1.604611345718413, -1.19129039829664, 2.041677520045107, 1.5671749149205423, -1.0801989286040723, 1.8708013210085597, 1.1550154039364298, -1.1427917648569015, 2.2945980832129727, 0.7202955192663197, -1.1538915974361545, 1.910110090164922, 0.23778283192799302, -0.7948870700864102, 1.5762722632696673, -0.7473217748854625, -0.6736358728571621, 1.524660956759311, -1.0405596766208127, -0.7228097288254316, 0.5875989692564711, -0.4392532153801914, -0.3798203140242801, -0.38428703694093247, 0.33647138708545876, 0.06569090429249393, -0.4443624404480073, 0.5557927062311044, 0.06852592566335015, 0.06220915562051693, -0.08153666354043679, -0.0006543783244024135, 0.09215495009143759, 0.03051311192230451, -0.07205159178083938, 0.045825359590069836, -0.06731950124761432, -0.02410891164847044, -1.6531951592168619], [0.5105164068536506, 1.7620483885860054, -0.0035887544700374807, 0.5107816134664851, -0.07724331968955887, -0.17847606531078966, -0.10644978935298174, 0.263566737843295, -0.345326342798797, 0.23146165245502165, 0.8283166206792874, -0.31171030669946115, 0.7346703304933111, 0.9076865543505674, -0.6858218205240082, 0.05599954656396505, 0.8716237469586511, -0.41676441618762394, 0.15986382598006788, 0.9537682797789054, -0.3485538451245374, -0.06320548404862592, 1.677705078820461, -0.30077108828194443, -0.17396824327601368, 1.3199639665928093, -0.35264373657721954, -0.13315329747741778, 1.3769678313679585, -0.3354758145064139, -0.14847540913826018, 0.6281317060304126, 0.04662318140901095, -0.679124554722996, 0.6540390945663832, 0.2011190835318642, -0.5580845921778415, 1.0496491174893192, 0.2947987490669872, -0.8312246846837016, 0.7212702670503548, 0.2583464819759585, -0.024853099817034985, -0.08804306752071706, 0.03580525513671834, -0.5317722275752699, 0.2035936797515609, 0.10874597662013963, -0.6372714589541824, 0.6993030729284923, 0.19745140130545197, -0.08843268541618099, -0.08719187250464391, 0.13538442744726045, 0.01982063508007073, -0.022807864024929375, 0.06424098443347845, 0.021794042287634457, -0.06943214629007305, 0.05250216001503025, -0.16677474837945866], [-1.0054110165546062, 0.28299535823684374, -0.4226639697853072, -0.8502656362779122, -1.2844945346226333, 0.32199824240842356, -1.5871206515858225, 0.3730516875582495, 0.03650331937547191, -1.5123357226078313, 0.2255691152044749, 0.65113987853721, -1.3328897278559442, 0.45529307031806343, 0.15816337887692253, -1.1746730025623098, 0.7507872051865548, -0.18924096390548423, -1.2419220939498234, 1.14019557395177, 0.13019329633486196, -0.9045206488076616, 0.7789642120834916, 0.3095629188281919, -1.047159108641679, 0.986985009622315, -0.14744512125062662, -0.37429088349019923, 0.8178414775446525, 0.12186638141453718, -0.7552997603252832, 0.9347656048947048, 0.10890452275987345, -0.8195864934939787, 0.9392523925619389, 0.1415853365225475, -0.6634803118837609, 0.5513951726250313, 0.12752707174634273, -0.6239255860372204, 0.35346051331049766, 0.2327634187860857, -0.33158858131745506, 0.027374095414635202, -0.0016664789961909343, -1.0527664908205603, 0.9202583952894712, 0.39263293861364057, -0.45423343708317876, 0.48782259459765576, 0.07852579426619652, 0.17543054787427864, 0.002217384462898042, -0.1341670331553503, -0.00486170844778859, -0.0370400728745448, -0.045919992354392605, -0.006595066392665008, 0.045815169891970126, 0.034672909458660306, 1.0523045744153818]], "b": [-3.871097912618123, -0.7523046425643372, 1.4720025513065338], "log_std": [-0.6931471805599453, -0.6931471805599453, -0.6931471805599453]}